svm_type c_svc
kernel_type rbf
gamma 0.00520833
nr_class 2
total_sv 16
rho -0.666667
label 1 -1
nr_sv 12 4
SV
0.3330078125 0:77 1:152 2:47 3:76 4:202 5:43 6:75 7:221 8:38 9:73 10:203 11:39 12:67 13:142 14:45 15:64 16:125 17:47 18:60 19:115 20:42 21:58 22:127 23:36 24:80 25:172 26:40 27:78 28:221 29:37 30:75 31:240 32:33 33:74 34:204 35:35 36:69 37:143 38:41 39:66 40:119 41:45 42:62 43:101 44:43 45:58 46:96 47:40 48:80 49:154 50:43 51:78 52:194 53:42 54:75 55:188 56:38 57:73 58:186 59:37 60:69 61:141 62:38 63:63 64:112 65:41 66:58 67:93 68:41 69:56 70:87 71:41 72:69 73:80 74:51 75:69 76:107 77:50 78:67 79:102 80:45 81:62 82:108 83:40 84:58 85:109 86:35 87:53 88:124 89:35 90:51 91:117 92:35 93:51 94:113 95:36 96:26 97:93 98:41 99:28 100:173 101:28 102:28 103:173 104:28 105:32 106:115 107:40 108:32 109:115 110:40 111:35 112:149 113:29 114:37 115:140 116:31 117:44 118:103 119:47 120:18 121:255 122:23 123:19 124:255 125:29 126:21 127:237 128:29 129:22 130:229 131:29 132:26 133:187 134:30 135:29 136:162 137:33 138:35 139:156 140:31 141:42 142:170 143:27 144:20 145:255 146:21 147:22 148:189 149:35 150:22 151:172 152:37 153:24 154:227 155:27 156:26 157:159 158:32 159:32 160:94 161:49 162:35 163:96 164:45 165:42 166:184 167:25 168:26 169:134 170:38 171:27 172:143 173:41 174:26 175:152 176:37 177:29 178:173 179:31 180:28 181:121 182:40 183:32 184:88 185:52 186:35 187:87 188:50 189:42 190:124 191:37 192:-1 
0.3330078125 0:77 1:195 2:34 3:75 4:220 5:36 6:75 7:210 8:34 9:71 10:211 11:35 12:69 13:211 14:35 15:66 16:204 17:35 18:64 19:182 20:35 21:63 22:170 23:36 24:77 25:168 26:35 27:75 28:195 29:34 30:74 31:191 32:32 33:70 34:204 35:30 36:67 37:206 38:31 39:65 40:206 41:31 42:63 43:185 44:33 45:61 46:170 47:33 48:77 49:145 50:37 51:74 52:156 53:36 54:74 55:155 56:33 57:69 58:162 59:33 60:66 61:162 62:33 63:63 64:153 65:35 66:61 67:144 68:39 69:59 70:128 71:40 72:76 73:114 74:38 75:72 76:117 77:37 78:71 79:117 80:35 81:66 82:117 83:35 84:62 85:114 86:38 87:58 88:109 89:42 90:57 91:103 92:47 93:57 94:97 95:50 96:74 97:92 98:36 99:68 100:85 101:33 102:68 103:94 104:30 105:60 106:106 107:29 108:56 109:123 110:29 111:53 112:135 113:32 114:54 115:135 116:36 117:54 118:124 119:39 120:73 121:88 122:26 123:60 124:69 125:26 126:60 127:69 128:26 129:52 130:104 131:27 132:48 133:133 134:25 135:51 136:163 137:25 138:49 139:188 140:23 141:49 142:197 143:22 144:66 145:36 146:35 147:42 148:35 149:36 150:42 151:33 152:39 153:40 154:56 155:41 156:45 157:77 158:40 159:43 160:102 161:35 162:43 163:132 164:31 165:46 166:155 167:28 168:30 169:11 170:45 171:24 172:27 173:47 174:24 175:27 176:48 177:34 178:42 179:49 180:35 181:57 182:49 183:39 184:76 185:47 186:38 187:87 188:44 189:43 190:95 191:43 192:-1 
0.3330078125 0:74 1:65 2:43 3:74 4:70 5:40 6:74 7:60 8:47 9:74 10:70 11:40 12:74 13:112 14:25 15:74 16:57 17:49 18:74 19:72 20:39 21:74 22:104 23:27 24:69 25:128 26:32 27:69 28:124 29:33 30:69 31:89 32:46 33:69 34:91 35:45 36:69 37:124 38:33 39:69 40:105 41:39 42:69 43:105 44:39 45:69 46:107 47:38 48:60 49:255 50:15 51:65 52:255 53:20 54:66 55:158 56:34 57:66 58:119 59:45 60:66 61:116 62:46 63:66 64:255 65:21 66:66 67:158 68:34 69:66 70:114 71:47 72:63 73:165 74:37 75:63 76:157 77:39 78:63 79:170 80:36 81:63 82:165 83:37 84:63 85:142 86:43 87:63 88:235 89:26 90:63 91:191 92:32 93:63 94:153 95:40 96:61 97:92 98:80 99:61 100:90 101:74 102:61 103:154 104:48 105:61 106:229 107:29 108:61 109:255 110:29 111:61 112:147 113:45 114:61 115:200 116:37 117:61 118:246 119:27 120:60 121:255 122:25 123:61 124:255 125:29 126:60 127:214 128:37 129:61 130:195 131:38 132:60 133:203 134:39 135:61 136:211 137:35 138:60 139:220 140:36 141:61 142:205 143:36 144:60 145:255 146:18 147:60 148:255 149:26 150:60 151:214 152:37 153:62 154:187 155:41 156:60 157:184 158:43 159:62 160:255 161:30 162:60 163:247 164:32 165:62 166:247 167:31 168:61 169:224 170:33 171:63 172:198 173:36 174:61 175:190 176:39 177:63 178:188 179:38 180:61 181:195 182:38 183:63 184:198 185:36 186:61 187:195 188:38 189:63 190:183 191:39 192:-1 
0.3330078125 0:69 1:91 2:45 3:70 4:115 5:40 6:67 7:139 8:33 9:66 10:179 11:30 12:67 13:125 14:47 15:65 16:125 17:51 18:65 19:179 20:40 21:64 22:207 23:37 24:71 25:83 26:49 27:69 28:93 29:44 30:69 31:128 32:42 33:60 34:255 35:15 36:65 37:193 38:33 39:65 40:143 41:50 42:64 43:134 44:57 45:64 46:145 47:58 48:71 49:120 50:34 51:69 52:105 53:39 54:69 55:119 56:45 57:67 58:209 59:28 60:65 61:206 62:31 63:65 64:183 65:39 66:64 67:159 68:48 69:64 70:175 71:48 72:73 73:255 74:14 75:74 76:165 77:31 78:74 79:119 80:43 81:72 82:112 83:50 84:67 85:189 86:31 87:60 88:255 89:17 90:60 91:255 92:15 93:60 94:255 95:11 96:77 97:195 98:34 99:80 100:183 101:32 102:83 103:185 104:29 105:81 106:231 107:21 108:76 109:173 110:25 111:71 112:185 113:22 114:69 115:215 116:19 117:58 118:142 119:27 120:80 121:121 122:57 123:83 124:159 125:40 126:87 127:232 128:22 129:86 130:255 131:14 132:84 133:166 134:23 135:80 136:118 137:26 138:68 139:127 140:22 141:56 142:102 143:20 144:80 145:144 146:46 147:82 148:189 149:31 150:86 151:255 152:17 153:80 154:255 155:6 156:84 157:185 158:22 159:80 160:101 161:38 162:69 163:85 164:39 165:65 166:90 167:34 168:77 169:255 170:16 171:83 172:255 173:21 174:87 175:162 176:30 177:86 178:255 179:14 180:84 181:151 182:27 183:79 184:101 185:43 186:71 187:82 188:50 189:69 190:83 191:49 192:-1 
0.333984375 0:68 1:255 2:20 3:60 4:255 5:6 6:80 7:255 8:3 9:113 10:255 11:4 12:90 13:255 14:6 15:87 16:128 17:20 18:80 19:87 20:35 21:76 22:111 23:39 24:61 25:201 26:33 27:59 28:134 29:38 30:43 31:47 32:38 33:24 34:44 35:29 36:36 37:58 38:22 39:55 40:85 41:18 42:63 43:170 44:15 45:67 46:207 47:16 48:59 49:128 50:60 51:57 52:96 53:69 54:35 55:83 56:34 57:16 58:90 59:31 60:30 61:85 62:24 63:40 64:96 65:24 66:52 67:127 68:22 69:60 70:153 71:20 72:60 73:144 74:55 75:58 76:123 77:54 78:38 79:97 80:29 81:21 82:94 83:27 84:30 85:76 86:27 87:40 88:72 89:32 90:52 91:90 92:31 93:60 94:118 95:26 96:64 97:248 98:34 99:60 100:255 101:22 102:45 103:122 104:25 105:30 106:93 107:22 108:34 109:73 110:28 111:40 112:62 113:37 114:52 115:72 116:39 117:60 118:96 119:32 120:66 121:234 122:37 123:65 124:255 125:28 126:48 127:138 128:24 129:34 130:102 131:20 132:40 133:88 134:26 135:48 136:67 137:38 138:52 139:68 140:41 141:60 142:90 143:34 144:68 145:217 146:40 147:65 148:179 149:40 150:56 151:137 152:26 153:40 154:128 155:18 156:48 157:121 158:21 159:52 160:88 161:32 162:57 163:76 164:37 165:57 166:88 167:32 168:69 169:241 170:36 171:67 172:200 173:37 174:58 175:128 176:30 177:48 178:142 179:18 180:52 181:175 182:16 183:52 184:117 185:24 186:57 187:94 188:30 189:57 190:100 191:28 192:-1 
0.333984375 0:109 1:78 2:26 3:101 4:70 5:29 6:101 7:46 8:44 9:87 10:51 11:45 12:79 13:80 14:35 15:79 16:127 17:22 18:74 19:95 20:35 21:71 22:113 23:36 24:125 25:73 26:21 27:114 28:51 29:25 30:114 31:49 32:26 33:96 34:53 35:24 36:80 37:59 38:26 39:80 40:96 41:24 42:74 43:85 44:33 45:69 46:118 47:28 48:133 49:128 50:14 51:132 52:80 53:16 54:126 55:116 56:11 57:110 58:153 59:5 60:83 61:170 62:6 63:80 64:53 65:29 66:73 67:77 68:30 69:68 70:112 71:25 72:146 73:97 74:21 75:145 76:67 77:23 78:132 79:40 80:32 81:120 82:21 83:24 84:75 85:57 86:9 87:83 88:46 89:22 90:70 91:81 92:19 93:66 94:111 95:23 96:140 97:23 98:33 99:120 100:13 101:38 102:75 103:8 104:66 105:83 106:17 107:61 108:66 109:43 110:30 111:70 112:153 113:10 114:60 115:255 116:7 117:68 118:140 119:20 120:68 121:56 122:50 123:68 124:64 125:44 126:67 127:195 128:17 129:67 130:221 131:15 132:67 133:87 134:38 135:67 136:174 137:19 138:69 139:163 140:25 141:69 142:141 143:29 144:65 145:255 146:17 147:60 148:255 149:12 150:60 151:255 152:7 153:60 154:255 155:10 156:67 157:255 158:18 159:67 160:79 161:58 162:67 163:127 164:36 165:60 166:255 167:10 168:67 169:242 170:19 171:65 172:255 173:17 174:67 175:148 176:31 177:67 178:121 179:38 180:67 181:139 182:33 183:67 184:115 185:40 186:67 187:148 188:31 189:67 190:191 191:24 192:-1 
0.333984375 0:80 1:221 2:30 3:82 4:183 5:32 6:79 7:255 8:16 9:77 10:255 11:19 12:77 13:255 14:21 15:72 16:255 17:20 18:68 19:255 20:16 21:60 22:255 23:14 24:86 25:160 26:35 27:87 28:155 29:33 30:87 31:204 32:25 33:87 34:176 35:29 36:84 37:156 38:31 39:77 40:170 41:30 42:74 43:204 44:25 45:72 46:255 47:20 48:90 49:164 50:28 51:90 52:164 53:28 54:93 55:170 56:30 57:90 58:143 59:32 60:87 61:135 62:36 63:84 64:138 65:35 66:77 67:165 68:31 69:74 70:204 71:25 72:95 73:191 74:24 75:95 76:209 77:22 78:98 79:243 80:21 81:95 82:184 83:25 84:90 85:146 86:28 87:88 88:136 89:30 90:81 91:179 92:27 93:77 94:213 95:24 96:101 97:167 98:26 99:99 100:255 101:19 102:102 103:255 104:15 105:95 106:242 107:19 108:95 109:170 110:27 111:88 112:141 113:29 114:84 115:146 116:28 117:77 118:189 119:27 120:103 121:177 122:23 123:103 124:185 125:22 126:101 127:161 128:27 129:95 130:140 131:31 132:95 133:149 134:29 135:88 136:215 137:19 138:84 139:151 140:27 141:76 142:108 143:40 144:106 145:100 146:28 147:104 148:100 149:33 150:103 151:177 152:23 153:98 154:153 155:25 156:95 157:158 158:21 159:90 160:238 161:15 162:79 163:255 164:17 165:76 166:217 167:20 168:109 169:85 170:24 171:103 172:77 173:30 174:104 175:98 176:34 177:95 178:109 179:28 180:90 181:118 182:26 183:84 184:142 185:27 186:76 187:188 188:23 189:70 190:255 191:15 192:-1 
0.333984375 0:63 1:135 2:34 3:60 4:186 5:26 6:60 7:255 8:14 9:60 10:255 11:11 12:63 13:219 14:21 15:60 16:127 17:38 18:63 19:100 20:46 21:69 22:114 23:47 24:60 25:147 26:33 27:60 28:255 29:10 30:60 31:255 32:8 33:60 34:255 35:18 36:60 37:179 38:27 39:60 40:255 41:15 42:60 43:255 44:8 45:60 46:255 47:9 48:60 49:255 50:18 51:60 52:255 53:19 54:63 55:233 56:23 57:63 58:185 59:29 60:63 61:167 62:32 63:63 64:198 65:27 66:60 67:255 68:17 69:60 70:255 71:10 72:60 73:255 74:12 75:64 76:125 77:47 78:66 79:74 80:72 81:64 82:99 83:59 84:66 85:255 86:21 87:60 88:255 89:9 90:66 91:191 92:28 93:70 94:102 95:60 96:69 97:125 98:47 99:67 100:120 101:53 102:69 103:113 104:52 105:67 106:148 107:43 108:69 109:202 110:29 111:67 112:255 113:25 114:69 115:183 116:32 117:71 118:160 119:43 120:73 121:86 122:71 123:73 124:146 125:42 126:65 127:255 128:17 129:69 130:255 131:20 132:73 133:146 134:42 135:73 136:122 137:50 138:73 139:197 140:31 141:60 142:255 143:10 144:77 145:184 146:36 147:77 148:189 149:35 150:77 151:195 152:34 153:77 154:189 155:35 156:77 157:179 158:37 159:77 160:179 161:37 162:77 163:189 164:35 165:77 166:216 167:33 168:68 169:255 170:8 171:79 172:255 173:16 174:83 175:206 176:31 177:83 178:182 179:35 180:83 181:220 182:29 183:83 184:236 185:27 186:83 187:188 188:34 189:80 190:156 191:44 192:-1 
0.3330078125 0:76 1:255 2:19 3:77 4:150 5:34 6:77 7:124 8:41 9:77 10:170 11:30 12:77 13:196 14:26 15:76 16:128 17:34 18:76 19:124 20:35 21:76 22:106 23:41 24:77 25:173 26:31 27:74 28:113 29:45 30:77 31:119 32:43 33:74 34:182 35:28 36:76 37:155 38:28 39:72 40:101 41:43 42:76 43:149 44:29 45:71 46:128 47:32 48:74 49:133 50:46 51:72 52:104 53:54 54:74 55:128 56:40 57:72 58:255 59:20 60:72 61:181 62:24 63:70 64:102 65:45 66:71 67:107 68:38 69:67 70:114 71:29 72:71 73:150 74:46 75:70 76:128 77:48 78:69 79:178 80:33 81:60 82:255 83:15 84:67 85:255 86:18 87:66 88:117 89:35 90:62 91:81 92:44 93:60 94:118 95:26 96:69 97:247 98:30 99:69 100:231 101:32 102:67 103:236 104:27 105:63 106:255 107:20 108:66 109:223 110:24 111:62 112:131 113:33 114:56 115:105 116:34 117:54 118:179 119:20 120:60 121:255 122:22 123:61 124:255 125:25 126:66 127:238 128:30 129:63 130:185 131:33 132:63 133:149 134:36 135:57 136:121 137:40 138:53 139:124 140:35 141:46 142:155 143:28 144:68 145:255 146:36 147:66 148:234 149:37 150:66 151:191 152:40 153:61 154:158 155:42 156:61 157:134 158:42 159:55 160:134 161:42 162:49 163:106 164:41 165:42 166:109 167:42 168:69 169:155 170:56 171:68 172:161 173:54 174:67 175:157 176:47 177:65 178:166 179:43 180:65 181:159 182:40 183:63 184:157 185:39 186:60 187:118 188:41 189:54 190:97 191:50 192:-1 
0.3330078125 0:30 1:118 2:26 3:34 4:238 5:15 6:39 7:255 8:13 9:43 10:157 11:26 12:43 13:102 14:40 15:38 16:147 17:26 18:34 19:119 20:30 21:35 22:107 23:31 24:30 25:122 26:25 27:38 28:213 29:18 30:43 31:227 32:18 33:49 34:155 35:28 36:46 37:114 38:38 39:43 40:132 41:27 42:39 43:105 44:34 45:38 46:74 47:38 48:39 49:179 50:20 51:43 52:215 53:19 54:49 55:197 56:22 57:52 58:170 59:27 60:52 61:153 62:30 63:60 64:255 65:3 66:38 67:216 68:13 69:38 70:85 71:33 72:46 73:128 74:30 75:52 76:164 77:28 78:57 79:173 80:28 81:59 82:146 83:35 84:57 85:115 86:42 87:48 88:127 89:26 90:45 91:78 92:39 93:45 94:78 95:39 96:53 97:114 98:38 99:59 100:196 101:26 102:60 103:255 104:20 105:61 106:255 107:23 108:61 109:187 110:30 111:53 112:135 113:32 114:46 115:87 116:44 117:48 118:72 119:46 120:60 121:162 122:30 123:64 124:168 125:38 126:66 127:174 128:44 129:68 130:194 131:42 132:65 133:193 134:37 135:54 136:138 137:35 138:49 139:94 140:46 141:51 142:83 143:49 144:61 145:255 146:22 147:68 148:157 149:52 150:68 151:129 152:71 153:70 154:162 155:63 156:68 157:202 158:43 159:56 160:160 161:35 162:48 163:124 164:41 165:48 166:121 167:42 168:68 169:194 170:42 171:69 172:212 173:47 174:70 175:207 176:53 177:71 178:235 179:50 180:66 181:255 182:38 183:57 184:195 185:34 186:48 187:173 188:34 189:48 190:178 191:33 192:-1 
0.3330078125 0:50 1:170 2:30 3:48 4:182 5:28 6:42 7:170 8:27 9:37 10:128 11:34 12:32 13:117 14:35 15:26 16:217 17:20 18:8 19:255 20:4 21:24 22:255 23:15 24:50 25:142 26:36 27:48 28:109 29:47 30:42 31:139 32:33 33:37 34:188 35:23 36:32 37:146 38:28 39:26 40:131 41:33 42:25 43:158 44:29 45:21 46:232 47:22 48:50 49:113 50:45 51:48 52:98 53:52 54:42 55:135 56:34 57:37 58:173 59:25 60:32 61:117 62:35 63:25 64:100 65:46 66:21 67:109 68:47 69:19 70:101 71:53 72:50 73:111 74:46 75:48 76:142 77:36 78:42 79:153 80:30 81:37 82:111 83:39 84:32 85:82 86:50 87:25 88:94 89:49 90:21 91:128 92:40 93:19 94:141 95:38 96:48 97:163 98:36 99:46 100:200 101:28 102:43 103:149 104:36 105:35 106:105 107:46 108:28 109:103 110:47 111:26 112:116 113:44 114:22 115:130 116:43 117:21 118:189 119:31 120:57 121:220 122:22 123:54 124:138 125:35 126:52 127:94 128:49 129:46 130:101 131:43 132:38 133:132 134:29 135:34 136:96 137:37 138:32 139:61 140:59 141:26 142:53 143:72 144:69 145:149 146:36 147:69 148:116 149:46 150:67 151:112 152:41 153:67 154:153 155:30 156:66 157:170 158:24 159:66 160:128 161:32 162:62 163:83 164:43 165:62 166:115 167:31 168:74 169:148 170:38 171:74 172:137 173:41 174:74 175:148 176:38 177:74 178:181 179:31 180:74 181:187 182:30 183:74 184:152 185:37 186:74 187:122 188:46 189:73 190:255 191:21 192:-1 
0.3330078125 0:59 1:96 2:53 3:56 4:127 5:44 6:54 7:193 8:33 9:53 10:255 11:24 12:55 13:255 14:22 15:60 16:124 17:39 18:67 19:200 20:23 21:65 22:255 23:17 24:60 25:76 26:64 27:59 28:89 29:57 30:55 31:122 32:46 33:53 34:153 35:40 36:55 37:148 38:38 39:63 40:74 41:62 42:69 43:158 44:34 45:60 46:255 47:15 48:62 49:108 50:40 51:57 52:135 53:36 54:51 55:137 56:39 57:50 58:140 59:42 60:51 61:131 62:41 63:63 64:230 65:20 66:69 67:145 68:37 69:69 70:119 71:45 72:58 73:120 74:32 75:53 76:197 77:22 78:52 79:164 80:28 81:48 82:165 83:31 84:50 85:189 86:27 87:62 88:101 89:43 90:67 91:87 92:53 93:67 94:88 95:52 96:57 97:112 98:25 99:48 100:151 101:22 102:46 103:114 104:38 105:42 106:112 107:41 108:46 109:140 110:31 111:58 112:128 113:30 114:66 115:100 116:41 117:66 118:91 119:45 120:52 121:94 122:30 123:38 124:90 125:31 126:39 127:76 128:47 129:34 130:81 131:44 132:38 133:132 134:29 135:48 136:207 137:16 138:60 139:128 140:24 141:60 142:93 143:33 144:43 145:60 146:30 147:30 148:73 149:28 150:30 151:93 152:33 153:26 154:128 155:30 156:30 157:204 158:15 159:38 160:67 161:42 162:48 163:85 164:30 165:52 166:122 167:23 168:25 169:55 170:28 171:21 172:85 173:30 174:21 175:123 176:27 177:18 178:149 179:29 180:22 181:123 182:31 183:30 184:44 185:58 186:40 187:70 188:33 189:40 190:230 191:10 192:-1 
-1 0:68 1:20 2:140 3:68 4:20 5:139 6:68 7:21 8:132 9:68 10:21 11:133 12:68 13:21 14:134 15:68 16:21 17:136 18:68 19:20 20:137 21:68 22:20 23:137 24:69 25:23 26:142 27:69 28:23 29:142 30:69 31:24 32:140 33:69 34:24 35:139 36:69 37:24 38:139 39:69 40:24 41:139 42:69 43:24 44:140 45:69 46:24 47:141 48:69 49:23 50:142 51:69 52:23 53:144 54:69 55:24 56:136 57:69 58:25 59:134 60:69 61:25 62:132 63:69 64:25 65:131 66:69 67:25 68:132 69:69 70:25 71:135 72:71 73:30 74:136 75:71 76:30 77:135 78:71 79:26 80:157 81:71 82:30 83:138 84:71 85:31 86:131 87:71 88:29 89:141 90:71 91:28 92:145 93:71 94:30 95:136 96:71 97:31 98:131 99:71 100:31 101:130 102:71 103:28 104:146 105:71 106:29 107:139 108:71 109:30 110:135 111:71 112:29 113:140 114:71 115:29 116:142 117:71 118:30 119:138 120:72 121:32 122:137 123:72 124:32 125:136 126:72 127:33 128:131 129:72 130:31 131:139 132:72 133:31 134:142 135:72 136:31 137:138 138:72 139:32 140:136 141:72 142:31 143:140 144:72 145:31 146:142 147:72 148:31 149:141 150:72 151:36 152:120 153:72 154:31 155:139 156:72 157:29 158:147 159:72 160:32 161:136 162:72 163:33 164:133 165:72 166:31 167:142 168:72 169:32 170:137 171:72 172:31 173:138 174:72 175:36 176:120 177:72 178:31 179:139 180:72 181:29 182:147 183:72 184:32 185:137 186:72 187:32 188:134 189:72 190:30 191:144 192:-1 
-1 0:55 1:11 2:137 3:55 4:11 5:138 6:42 7:10 8:134 9:51 10:14 11:131 12:65 13:23 14:133 15:62 16:26 17:137 18:62 19:26 20:140 21:62 22:25 23:144 24:55 25:11 26:137 27:55 28:11 29:138 30:42 31:10 32:133 33:51 34:14 35:130 36:65 37:22 38:138 39:62 40:25 41:142 42:62 43:25 44:144 45:62 46:26 47:140 48:60 49:13 50:138 51:55 52:11 53:137 54:42 55:10 56:132 57:51 58:14 59:129 60:65 61:23 62:136 63:62 64:25 65:142 66:62 67:25 68:144 69:62 70:26 71:135 72:60 73:13 74:136 75:55 76:11 77:135 78:42 79:10 80:131 81:51 82:14 83:128 84:65 85:24 86:129 87:62 88:26 89:138 90:62 91:25 92:144 93:62 94:25 95:142 96:66 97:19 98:133 99:60 100:13 101:133 102:55 103:12 104:130 105:51 106:14 107:127 108:65 109:23 110:132 111:62 112:26 113:140 114:62 115:24 116:147 117:62 118:24 119:147 120:66 121:20 122:130 123:60 124:14 125:131 126:55 127:12 128:129 129:56 130:16 131:128 132:65 133:24 134:129 135:62 136:27 137:134 138:62 139:26 140:139 141:62 142:25 143:142 144:68 145:22 146:128 147:66 148:19 149:131 150:60 151:14 152:129 153:56 154:16 155:128 156:65 157:28 158:110 159:62 160:31 161:116 162:62 163:28 164:126 165:62 166:26 167:137 168:69 169:23 170:144 171:68 172:23 173:123 174:66 175:22 176:118 177:63 178:20 179:128 180:65 181:25 182:124 183:62 184:28 185:127 186:62 187:27 188:132 189:62 190:26 191:137 192:-1 
-1 0:51 1:40 2:134 3:50 4:44 5:132 6:50 7:45 8:131 9:54 10:37 11:130 12:62 13:26 14:136 15:69 16:25 17:134 18:71 19:30 20:136 21:71 22:29 23:139 24:50 25:43 26:136 27:50 28:44 29:134 30:50 31:45 32:131 33:54 34:38 35:129 36:62 37:26 38:136 39:69 40:25 41:135 42:71 43:30 44:137 45:71 46:30 47:138 48:48 49:43 50:135 51:48 52:43 53:136 54:47 55:47 56:137 57:50 58:38 59:136 60:62 61:26 62:140 63:69 64:24 65:140 66:71 67:29 68:142 69:71 70:29 71:141 72:46 73:33 74:132 75:46 76:32 77:136 78:44 79:34 80:141 81:51 82:28 83:145 84:60 85:21 86:143 87:67 88:23 89:144 90:71 91:28 92:146 93:69 94:28 95:145 96:35 97:12 98:128 99:35 100:12 101:129 102:35 103:11 104:135 105:43 106:13 107:142 108:63 109:20 110:125 111:62 112:27 113:132 114:67 115:24 116:136 117:62 118:26 119:138 120:20 121:6 122:127 123:24 124:10 125:125 126:20 127:6 128:124 129:42 130:10 131:124 132:63 133:19 134:131 135:62 136:26 137:137 138:62 139:26 140:140 141:62 142:26 143:139 144:36 145:9 146:144 147:35 148:11 149:140 150:36 151:10 152:131 153:51 154:14 155:126 156:60 157:22 158:139 159:62 160:25 161:142 162:62 163:25 164:143 165:62 166:26 167:140 168:48 169:16 170:157 171:48 172:17 173:154 174:48 175:18 176:145 177:52 178:20 179:137 180:60 181:22 182:141 183:62 184:25 185:144 186:62 187:25 188:143 189:62 190:26 191:139 192:-1 
-1 0:69 1:26 2:155 3:66 4:26 5:154 6:66 7:27 8:149 9:66 10:28 11:144 12:62 13:25 14:142 15:60 16:22 17:138 18:60 19:22 20:138 21:57 22:20 23:137 24:68 25:19 26:145 27:63 28:16 29:156 30:63 31:17 32:153 33:57 34:19 35:147 36:57 37:19 38:144 39:60 40:22 41:142 42:62 43:25 44:144 45:60 46:21 47:145 48:66 49:18 50:145 51:60 52:13 53:138 54:56 55:15 56:135 57:48 58:19 59:135 60:52 61:21 62:136 63:60 64:21 65:147 66:62 67:24 68:148 69:62 70:24 71:148 72:66 73:18 74:143 75:60 76:14 77:132 78:56 79:15 80:136 81:52 82:19 83:144 84:57 85:20 86:143 87:60 88:20 89:151 90:62 91:24 92:151 93:62 94:24 95:150 96:66 97:18 98:143 99:60 100:13 101:137 102:56 103:14 104:149 105:52 106:18 107:153 108:57 109:20 110:143 111:60 112:21 113:149 114:62 115:24 116:150 117:62 118:24 119:149 120:68 121:20 122:139 123:66 124:19 125:137 126:63 127:17 128:151 129:57 130:19 131:150 132:57 133:21 134:134 135:60 136:21 137:143 138:62 139:25 140:144 141:62 142:25 143:145 144:68 145:21 146:131 147:68 148:21 149:133 150:63 151:17 152:150 153:57 154:18 155:157 156:60 157:20 158:151 159:62 160:26 161:139 162:62 163:26 164:140 165:62 166:25 167:142 168:69 169:25 170:132 171:69 172:25 173:135 174:65 175:21 176:143 177:60 178:20 179:152 180:60 181:19 182:158 183:62 184:26 185:138 186:62 187:26 188:139 189:62 190:25 191:141 192:-1 
