svm_type c_svc
kernel_type rbf
gamma 0.00520833
nr_class 2
total_sv 29
rho 0.388889
label 1 -1
nr_sv 11 18
SV
1 0:30 1:7 2:71 3:30 4:5 5:96 6:120 7:3 8:164 9:120 10:2 11:241 12:150 13:1 14:255 15:128 16:4 17:255 18:125 19:6 20:250 21:150 22:1 23:255 24:30 25:3 26:172 27:30 28:2 29:213 30:0 31:0 32:246 33:120 34:2 35:249 36:126 37:5 38:245 39:126 40:5 41:252 42:150 43:1 44:255 45:0 46:0 47:255 48:30 49:2 50:212 51:30 52:2 53:247 54:0 55:0 56:255 57:0 58:0 59:252 60:120 61:2 62:246 63:0 64:0 65:255 66:0 67:0 68:255 69:120 70:2 71:252 72:36 73:5 74:241 75:30 76:2 77:238 78:0 79:0 80:246 81:0 82:0 83:255 84:0 85:0 86:255 87:0 88:0 89:245 90:120 91:2 92:245 93:0 94:0 95:253 96:30 97:4 98:255 99:36 100:5 101:247 102:30 103:2 104:242 105:30 106:2 107:252 108:30 109:2 110:251 111:30 112:2 113:237 114:0 115:0 116:239 117:30 118:2 119:255 120:36 121:5 122:241 123:30 124:4 125:255 126:30 127:4 128:255 129:36 130:5 131:252 132:30 133:2 134:249 135:30 136:4 137:255 138:30 139:2 140:255 141:36 142:5 143:246 144:36 145:5 146:253 147:36 148:5 149:253 150:36 151:5 152:253 153:35 154:6 155:253 156:36 157:5 158:253 159:35 160:6 161:253 162:36 163:5 164:253 165:36 166:5 167:253 168:36 169:5 170:253 171:35 172:6 173:253 174:35 175:6 176:253 177:35 178:6 179:253 180:35 181:6 182:253 183:34 184:8 185:253 186:35 187:6 188:253 189:35 190:6 191:253 192:-1 
1 0:165 1:2 2:255 3:165 4:2 5:255 6:75 7:2 8:255 9:75 10:2 11:255 12:68 13:4 14:255 15:30 16:2 17:254 18:36 19:5 20:255 21:36 22:5 23:255 24:165 25:2 26:255 27:165 28:2 29:255 30:75 31:2 32:255 33:75 34:2 35:255 36:68 37:4 38:255 39:30 40:2 41:254 42:36 43:5 44:255 45:36 46:5 47:255 48:165 49:2 50:255 51:165 52:2 53:255 54:75 55:2 56:255 57:75 58:2 59:255 60:68 61:4 62:255 63:30 64:2 65:254 66:36 67:5 68:255 69:36 70:5 71:255 72:165 73:2 74:255 75:165 76:2 77:255 78:75 79:2 80:255 81:75 82:2 83:255 84:68 85:4 86:255 87:30 88:2 89:254 90:36 91:5 92:255 93:36 94:5 95:255 96:165 97:2 98:255 99:165 100:2 101:255 102:75 103:2 104:255 105:75 106:2 107:255 108:68 109:4 110:255 111:30 112:2 113:254 114:36 115:5 116:255 117:36 118:5 119:255 120:165 121:2 122:255 123:165 124:2 125:255 126:75 127:2 128:255 129:75 130:2 131:255 132:68 133:4 134:255 135:30 136:2 137:254 138:36 139:5 140:255 141:36 142:5 143:255 144:165 145:2 146:255 147:165 148:2 149:255 150:75 151:2 152:255 153:75 154:2 155:255 156:68 157:4 158:255 159:30 160:2 161:254 162:36 163:5 164:255 165:36 166:5 167:255 168:20 169:3 170:255 171:0 172:0 173:254 174:50 175:3 176:255 177:83 178:4 179:255 180:72 181:5 182:255 183:60 184:5 185:255 186:55 187:6 188:255 189:55 190:6 191:255 192:-1 
1 0:36 1:5 2:255 3:36 4:5 5:255 6:75 7:2 8:253 9:0 10:0 11:252 12:165 13:2 14:253 15:173 16:4 17:255 18:168 19:5 20:255 21:165 22:6 23:255 24:36 25:5 26:255 27:36 28:5 29:255 30:0 31:0 32:252 33:0 34:0 35:252 36:165 37:2 38:253 39:173 40:4 41:255 42:168 43:5 44:255 45:165 46:6 47:255 48:36 49:5 50:255 51:36 52:5 53:255 54:0 55:0 56:252 57:0 58:0 59:252 60:165 61:2 62:253 63:165 64:2 65:253 66:173 67:4 68:255 69:168 70:5 71:255 72:36 73:5 74:255 75:36 76:5 77:255 78:0 79:0 80:252 81:0 82:0 83:252 84:165 85:2 86:253 87:165 88:2 89:253 90:165 91:2 92:253 93:165 94:2 95:253 96:36 97:5 98:255 99:36 100:5 101:255 102:0 103:0 104:252 105:0 106:0 107:252 108:165 109:2 110:253 111:165 112:2 113:253 114:0 115:0 116:252 117:0 118:0 119:252 120:36 121:5 122:255 123:36 124:5 125:255 126:165 127:2 128:253 129:165 130:2 131:249 132:0 133:0 134:247 135:0 136:0 137:252 138:90 139:1 140:255 141:90 142:3 143:255 144:36 145:5 146:255 147:36 148:5 149:255 150:165 151:2 152:254 153:165 154:2 155:253 156:0 157:0 158:252 159:75 160:2 161:255 162:83 163:4 164:253 165:80 166:6 167:250 168:36 169:5 170:255 171:36 172:5 173:255 174:165 175:2 176:249 177:165 178:2 179:252 180:0 181:0 182:255 183:90 184:1 185:255 186:84 187:5 188:255 189:86 190:7 191:255 192:-1 
1 0:53 1:4 2:255 3:38 4:4 5:255 6:20 7:3 8:254 9:20 10:3 11:255 12:36 13:5 14:253 15:36 16:5 17:253 18:36 19:5 20:253 21:36 22:5 23:253 24:53 25:4 26:255 27:42 28:5 29:255 30:20 31:3 32:252 33:20 34:3 35:251 36:36 37:5 38:253 39:36 40:5 41:253 42:36 43:5 44:253 45:36 46:5 47:253 48:53 49:4 50:255 51:42 52:5 53:255 54:24 55:5 56:253 57:24 58:5 59:251 60:36 61:5 62:253 63:36 64:5 65:253 66:36 67:5 68:253 69:36 70:5 71:253 72:55 73:6 74:254 75:38 76:4 77:255 78:30 79:4 80:255 81:30 82:4 83:255 84:36 85:5 86:253 87:36 88:5 89:253 90:36 91:5 92:253 93:36 94:5 95:253 96:51 97:7 98:255 99:36 100:5 101:255 102:30 103:5 104:255 105:30 106:5 107:255 108:36 109:5 110:253 111:36 112:5 113:253 114:36 115:5 116:253 117:36 118:5 119:253 120:48 121:5 122:255 123:40 124:6 125:255 126:25 127:6 128:252 129:30 130:5 131:255 132:36 133:5 134:253 135:36 136:5 137:253 138:36 139:5 140:253 141:36 142:5 143:253 144:48 145:5 146:255 147:43 148:7 149:253 150:25 151:6 152:249 153:25 154:6 155:255 156:36 157:5 158:253 159:36 160:5 161:253 162:36 163:5 164:253 165:36 166:5 167:253 168:42 169:5 170:255 171:42 172:5 173:250 174:36 175:5 176:249 177:38 178:4 179:255 180:73 181:9 182:255 183:75 184:10 185:255 186:73 187:9 188:255 189:67 190:9 191:255 192:-1 
1 0:168 1:5 2:255 3:156 4:5 5:255 6:110 7:3 8:254 9:93 10:9 11:255 12:90 13:10 14:255 15:90 16:8 17:255 18:90 19:5 20:255 21:90 22:1 23:255 24:168 25:5 26:255 27:156 28:5 29:255 30:120 31:2 32:254 33:99 34:7 35:255 36:93 37:9 38:255 39:99 40:7 41:255 42:101 43:8 44:254 45:110 46:3 47:252 48:160 49:3 50:255 51:150 52:3 53:255 54:120 55:1 56:255 57:90 58:4 59:255 60:90 61:5 62:255 63:90 64:5 65:255 66:90 67:5 68:255 69:105 70:2 71:255 72:160 73:3 74:255 75:150 76:3 77:255 78:150 79:2 80:255 81:105 82:2 83:255 84:90 85:5 86:255 87:90 88:5 89:255 90:90 91:5 92:255 93:105 94:2 95:255 96:165 97:2 98:255 99:150 100:3 101:255 102:150 103:3 104:255 105:135 106:2 107:255 108:90 109:4 110:255 111:90 112:5 113:255 114:90 115:5 116:255 117:105 118:2 119:255 120:165 121:2 122:255 123:150 124:3 125:255 126:150 127:3 128:255 129:135 130:2 131:255 132:105 133:2 134:255 135:90 136:4 137:255 138:90 139:5 140:255 141:105 142:2 143:255 144:165 145:2 146:255 147:150 148:3 149:255 150:150 151:3 152:255 153:150 154:2 155:255 156:135 157:2 158:255 159:90 160:4 161:255 162:90 163:5 164:255 165:105 166:2 167:255 168:165 169:2 170:255 171:150 172:3 173:255 174:150 175:3 176:255 177:150 178:3 179:255 180:135 181:2 182:255 183:90 184:4 185:255 186:90 187:5 188:255 189:105 190:2 191:255 192:-1 
1 0:36 1:5 2:253 3:36 4:5 5:253 6:36 7:5 8:253 9:36 10:5 11:253 12:36 13:5 14:253 15:35 16:6 17:253 18:30 19:7 20:255 21:30 22:7 23:255 24:36 25:5 26:253 27:36 28:5 29:253 30:36 31:5 32:253 33:36 34:5 35:253 36:36 37:5 38:253 39:35 40:6 41:253 42:35 43:6 44:255 45:34 46:8 47:255 48:36 49:5 50:253 51:36 52:5 53:253 54:36 55:5 56:253 57:36 58:5 59:253 60:36 61:5 62:253 63:35 64:6 65:253 66:35 67:6 68:252 69:34 70:8 71:253 72:36 73:5 74:253 75:36 76:5 77:253 78:36 79:5 80:253 81:36 82:5 83:253 84:36 85:5 86:253 87:36 88:5 89:253 90:35 91:6 92:253 93:35 94:6 95:254 96:36 97:5 98:253 99:36 100:5 101:253 102:24 103:5 104:253 105:24 106:5 107:253 108:24 109:5 110:253 111:24 112:5 113:253 114:36 115:5 116:255 117:36 118:5 119:255 120:36 121:5 122:253 123:36 124:5 125:253 126:24 127:5 128:253 129:24 130:5 131:253 132:24 133:5 134:253 135:24 136:5 137:253 138:30 139:4 140:255 141:30 142:4 143:255 144:36 145:5 146:253 147:36 148:5 149:253 150:24 151:5 152:253 153:24 154:5 155:253 156:13 157:7 158:255 159:24 160:5 161:253 162:30 163:2 164:252 165:30 166:2 167:252 168:42 169:5 170:253 171:36 172:5 173:253 174:24 175:5 176:253 177:24 178:5 179:253 180:13 181:7 182:255 183:13 184:7 185:255 186:20 187:3 188:253 189:30 190:2 191:252 192:-1 
1 0:30 1:2 2:254 3:140 4:3 5:247 6:150 7:1 8:255 9:150 10:2 11:255 12:156 13:5 14:251 15:170 16:6 17:255 18:150 19:2 20:255 21:6 22:5 23:252 24:30 25:2 26:252 27:150 28:2 29:255 30:150 31:2 32:255 33:150 34:3 35:255 36:150 37:3 38:255 39:160 40:3 41:255 42:160 43:3 44:255 45:0 46:3 47:255 48:30 49:2 50:252 51:150 52:2 53:255 54:150 55:2 56:255 57:150 58:3 59:255 60:150 61:3 62:255 63:160 64:3 65:255 66:160 67:3 68:255 69:0 70:3 71:255 72:30 73:2 74:252 75:120 76:1 77:255 78:150 79:2 80:255 81:150 82:3 83:255 84:150 85:3 86:255 87:160 88:3 89:255 90:158 91:4 92:255 93:173 94:4 95:255 96:30 97:2 98:252 99:120 100:1 101:255 102:135 103:2 104:255 105:150 106:3 107:255 108:150 109:3 110:255 111:158 112:4 113:255 114:158 115:4 116:255 117:173 118:4 119:255 120:30 121:2 122:252 123:120 124:1 125:255 126:135 127:2 128:255 129:150 130:3 131:255 132:150 133:3 134:255 135:158 136:4 137:255 138:158 139:4 140:255 141:173 142:4 143:255 144:30 145:2 146:252 147:120 148:1 149:255 150:135 151:2 152:255 153:150 154:3 155:255 156:150 157:3 158:255 159:158 160:4 161:255 162:158 163:4 164:255 165:173 166:4 167:255 168:30 169:2 170:252 171:120 172:1 173:255 174:135 175:2 176:255 177:150 178:3 179:255 180:150 181:3 182:255 183:158 184:4 185:255 186:158 187:4 188:255 189:173 190:4 191:255 192:-1 
1 0:107 1:31 2:243 3:107 4:32 5:240 6:108 7:33 8:247 9:107 10:30 11:255 12:99 13:19 14:255 15:98 16:18 17:255 18:92 19:15 20:255 21:90 22:13 23:255 24:105 25:34 26:239 27:105 28:35 29:234 30:107 31:36 32:240 33:107 34:35 35:248 36:101 37:24 38:255 39:99 40:23 41:255 42:96 43:20 44:255 45:90 46:17 47:255 48:105 49:34 50:237 51:107 52:37 53:233 54:107 55:39 56:238 57:107 58:37 59:246 60:105 61:30 62:255 63:104 64:28 65:255 66:100 67:24 68:255 69:97 70:21 71:255 72:105 73:35 74:239 75:105 76:38 77:235 78:106 79:39 80:239 81:106 82:38 83:247 84:106 85:37 86:255 87:105 88:35 89:255 90:103 91:30 92:255 93:99 94:26 95:255 96:105 97:35 98:241 99:106 100:39 101:240 102:108 103:41 104:244 105:108 106:39 107:252 108:108 109:39 110:252 111:106 112:37 113:253 114:105 115:34 116:255 117:102 118:28 119:255 120:103 121:35 122:249 123:106 124:41 125:238 126:107 127:43 128:237 129:107 130:43 131:247 132:107 133:40 134:255 135:106 136:38 137:255 138:104 139:34 140:255 141:100 142:29 143:255 144:103 145:35 146:247 147:104 148:43 149:235 150:107 151:46 152:234 153:106 154:47 155:240 156:107 157:43 158:252 159:106 160:44 161:255 162:105 163:37 164:255 165:101 166:34 167:255 168:103 169:40 170:243 171:103 172:46 173:229 174:106 175:50 176:225 177:106 178:51 179:228 180:107 181:47 182:243 183:106 184:47 185:247 186:106 187:44 188:253 189:104 190:40 191:255 192:-1 
1 0:91 1:32 2:255 3:91 4:30 5:255 6:90 7:26 8:255 9:90 10:18 11:255 12:90 13:17 14:255 15:90 16:14 17:255 18:90 19:16 20:255 21:92 22:15 23:255 24:90 25:26 26:255 27:90 28:22 29:255 30:90 31:21 32:255 33:90 34:19 35:255 36:90 37:19 38:255 39:90 40:16 41:255 42:90 43:14 44:255 45:90 46:17 47:255 48:101 49:43 50:245 51:101 52:41 53:254 54:100 55:39 56:255 57:102 58:38 59:255 60:102 61:36 62:255 63:98 64:30 65:255 66:95 67:23 68:255 69:90 70:16 71:255 72:105 73:58 74:198 75:105 76:54 77:211 78:105 79:50 80:218 81:105 82:48 83:222 84:104 85:45 86:227 87:104 88:43 89:236 90:104 91:38 92:242 93:104 94:36 95:252 96:107 97:60 98:201 99:107 100:58 101:205 102:107 103:58 104:207 105:107 106:56 107:204 108:107 109:57 110:203 111:106 112:55 113:203 114:106 115:55 116:204 117:105 118:51 119:209 120:110 121:52 122:240 123:110 124:53 125:234 126:110 127:55 128:227 129:109 130:55 131:218 132:109 133:57 134:209 135:107 136:61 137:197 138:107 139:63 140:190 141:107 142:60 143:191 144:106 145:40 146:238 147:106 148:42 149:231 150:106 151:43 152:227 153:108 154:44 155:228 156:106 157:43 158:220 159:107 160:48 161:212 162:107 163:50 164:203 165:107 166:50 167:203 168:80 169:24 170:245 171:80 172:23 173:235 174:83 175:24 176:224 177:87 178:22 179:221 180:90 181:21 182:220 183:95 184:21 185:214 186:98 187:25 188:203 189:102 190:30 191:197 192:-1 
1 0:36 1:5 2:255 3:36 4:5 5:255 6:36 7:5 8:255 9:36 10:5 11:255 12:36 13:5 14:255 15:36 16:5 17:255 18:36 19:5 20:255 21:36 22:5 23:255 24:36 25:5 26:255 27:36 28:5 29:255 30:36 31:5 32:255 33:36 34:5 35:255 36:36 37:5 38:255 39:36 40:5 41:255 42:36 43:5 44:255 45:36 46:5 47:255 48:36 49:5 50:255 51:36 52:5 53:255 54:36 55:5 56:255 57:36 58:5 59:255 60:36 61:5 62:255 63:36 64:5 65:255 66:36 67:5 68:255 69:36 70:5 71:255 72:36 73:5 74:255 75:36 76:5 77:255 78:36 79:5 80:255 81:36 82:5 83:255 84:36 85:5 86:255 87:36 88:5 89:255 90:36 91:5 92:255 93:36 94:5 95:255 96:68 97:4 98:255 99:68 100:4 101:255 102:68 103:4 104:255 105:50 106:3 107:255 108:50 109:3 110:255 111:42 112:5 113:255 114:42 115:5 116:255 117:42 118:5 119:255 120:93 121:11 122:253 123:87 124:10 125:252 126:90 127:8 128:255 129:86 130:7 131:255 132:84 133:5 134:255 135:72 136:5 137:255 138:68 139:4 140:255 141:68 142:4 143:255 144:90 145:12 146:255 147:90 148:12 149:255 150:90 151:8 152:255 153:90 154:8 155:255 156:90 157:6 158:255 159:90 160:6 161:255 162:75 163:4 164:255 165:75 166:4 167:255 168:90 169:11 170:255 171:90 172:11 173:255 174:90 175:10 176:255 177:90 178:10 179:255 180:83 181:8 182:255 183:83 184:8 185:255 186:70 187:6 188:255 189:70 190:6 191:255 192:-1 
1 0:50 1:3 2:255 3:42 4:5 5:255 6:42 7:5 8:255 9:42 10:5 11:255 12:36 13:5 14:255 15:36 16:5 17:255 18:36 19:5 20:255 21:36 22:5 23:255 24:80 25:6 26:255 27:66 28:5 29:255 30:68 31:4 32:255 33:70 34:3 35:255 36:38 37:4 38:255 39:38 40:4 41:255 42:36 43:5 44:255 45:36 46:5 47:255 48:80 49:6 50:254 51:80 52:6 53:255 54:68 55:4 56:255 57:70 58:3 59:255 60:53 61:4 62:255 63:38 64:4 65:255 66:36 67:5 68:255 69:36 70:5 71:255 72:80 73:6 74:254 75:80 76:6 77:255 78:66 79:5 80:255 81:68 82:4 83:255 84:38 85:4 86:255 87:38 88:4 89:255 90:36 91:5 92:255 93:36 94:5 95:255 96:80 97:9 98:254 99:80 100:6 101:254 102:66 103:5 104:255 105:66 106:5 107:255 108:42 109:5 110:255 111:42 112:5 113:255 114:36 115:5 116:255 117:36 118:5 119:255 120:80 121:9 122:253 123:80 124:6 125:253 126:66 127:5 128:254 129:50 130:3 131:254 132:36 133:5 134:254 135:36 136:5 137:254 138:36 139:5 140:255 141:36 142:5 143:255 144:80 145:9 146:252 147:80 148:6 149:252 150:50 151:3 152:252 153:50 154:3 155:253 156:36 157:5 158:253 159:36 160:5 161:254 162:36 163:5 164:255 165:36 166:5 167:255 168:80 169:9 170:252 171:80 172:6 173:252 174:50 175:3 176:251 177:50 178:3 179:252 180:36 181:5 182:253 183:36 184:5 185:253 186:36 187:5 188:255 189:36 190:5 191:255 192:-1 
-0.611328125 0:29 1:255 2:21 3:8 4:255 5:4 6:22 7:255 8:15 9:16 10:101 11:38 12:5 13:61 14:50 15:0 16:83 17:37 18:174 19:194 20:21 21:176 22:255 23:15 24:33 25:134 26:40 27:10 28:255 29:3 30:25 31:255 32:11 33:22 34:166 35:23 36:13 37:132 38:31 39:8 40:159 41:24 42:0 43:215 44:19 45:177 46:242 47:20 48:32 49:177 50:26 51:32 52:219 53:21 54:32 55:240 56:17 57:26 58:213 59:18 60:18 61:228 62:19 63:11 64:241 65:18 66:8 67:232 68:22 69:1 70:191 71:28 72:41 73:255 74:8 75:35 76:211 77:23 78:35 79:211 80:23 81:32 82:255 83:14 84:21 85:255 86:10 87:13 88:255 89:14 90:12 91:255 92:23 93:8 94:229 95:29 96:39 97:255 98:17 99:39 100:255 101:16 102:35 103:194 104:25 105:32 106:255 107:13 108:19 109:255 110:8 111:17 112:255 113:16 114:14 115:255 116:27 117:12 118:247 119:31 120:38 121:170 122:30 123:38 124:196 125:26 126:34 127:173 128:31 129:33 130:255 131:20 132:25 133:255 134:17 135:22 136:220 137:29 138:17 139:185 140:40 141:13 142:194 143:42 144:35 145:211 146:23 147:34 148:131 149:41 150:33 151:141 152:38 153:29 154:193 155:29 156:24 157:199 158:32 159:21 160:153 161:45 162:17 163:139 164:55 165:15 166:148 167:57 168:28 169:255 170:19 171:28 172:145 173:44 174:28 175:172 176:37 177:24 178:135 179:51 180:24 181:113 182:63 183:22 184:119 185:62 186:19 187:130 188:57 189:17 190:128 191:60 192:-1 
-0.611328125 0:19 1:92 2:116 3:20 4:103 5:114 6:21 7:94 8:133 9:22 10:93 11:146 12:23 13:100 14:140 15:23 16:107 17:136 18:23 19:98 20:140 21:22 22:87 23:138 24:21 25:67 26:134 27:24 28:69 29:130 30:24 31:69 32:129 33:26 34:70 35:128 36:26 37:70 38:128 39:26 40:73 41:129 42:26 43:73 44:129 45:25 46:75 47:130 48:24 49:56 50:136 51:26 52:56 53:133 54:26 55:56 56:131 57:28 58:54 59:127 60:28 61:55 62:126 63:30 64:53 65:125 66:29 67:59 68:126 69:26 70:61 71:138 72:24 73:60 74:128 75:26 76:58 77:127 78:26 79:58 80:128 81:28 82:54 83:127 84:28 85:54 86:127 87:28 88:54 89:128 90:29 91:58 92:128 93:26 94:58 95:144 96:22 97:69 98:114 99:24 100:65 101:117 102:26 103:61 104:121 105:26 106:59 107:126 108:28 109:54 110:128 111:28 112:53 113:130 114:26 115:55 116:134 117:24 118:57 119:143 120:22 121:68 122:117 123:24 124:64 125:120 126:26 127:60 128:124 129:26 130:58 131:128 132:26 133:56 134:131 135:26 136:56 137:132 138:26 139:56 140:132 141:24 142:58 143:140 144:22 145:57 146:138 147:24 148:55 149:138 150:24 151:55 152:138 153:24 154:56 155:136 156:26 157:56 158:132 159:26 160:58 161:128 162:26 163:59 164:125 165:24 166:60 167:136 168:22 169:53 170:150 171:22 172:53 173:150 174:22 175:54 176:147 177:22 178:56 179:141 180:24 181:58 182:133 183:24 184:61 185:126 186:24 187:63 188:122 189:24 190:61 191:126 192:-1 
-0.611328125 0:20 1:55 2:121 3:20 4:57 5:116 6:20 7:61 8:109 9:21 10:64 11:107 12:21 13:52 14:133 15:22 16:49 17:151 18:22 19:54 20:138 21:22 22:56 23:142 24:20 25:53 26:124 27:20 28:54 29:122 30:20 31:51 32:130 33:21 34:51 35:134 36:21 37:53 38:131 39:22 40:57 41:129 42:22 43:56 44:131 45:22 46:58 47:136 48:20 49:51 50:129 51:20 52:51 53:129 54:20 55:49 56:134 57:21 58:52 59:133 60:21 61:53 62:130 63:22 64:56 65:132 66:22 67:53 68:139 69:22 70:58 71:137 72:20 73:51 74:130 75:20 76:50 77:132 78:20 79:48 80:137 81:21 82:51 83:136 84:21 85:53 86:131 87:22 88:55 89:134 90:22 91:52 92:142 93:22 94:58 95:136 96:20 97:52 98:127 99:20 100:51 101:131 102:20 103:46 104:144 105:21 106:46 107:151 108:21 109:47 110:145 111:22 112:54 113:138 114:22 115:54 116:136 117:22 118:58 119:136 120:20 121:50 122:133 123:20 124:48 125:139 126:20 127:41 128:161 129:21 130:39 131:175 132:21 133:41 134:167 135:22 136:50 137:147 138:22 139:56 140:132 141:22 142:59 143:134 144:20 145:44 146:150 147:20 148:42 149:157 150:20 151:37 152:177 153:21 154:37 155:188 156:21 157:39 158:175 159:22 160:49 161:150 162:22 163:56 164:131 165:22 166:60 167:131 168:20 169:40 170:164 171:20 172:39 173:170 174:20 175:37 176:180 177:21 178:39 179:175 180:21 181:44 182:156 183:22 184:54 185:136 186:22 187:58 188:128 189:22 190:62 191:128 192:-1 
-0.611328125 0:24 1:49 2:126 3:24 4:49 5:125 6:24 7:49 8:125 9:24 10:49 11:124 12:24 13:49 14:124 15:24 16:50 17:123 18:24 19:50 20:123 21:24 22:54 23:118 24:24 25:49 26:125 27:24 28:49 29:125 30:24 31:49 32:124 33:24 34:50 35:123 36:24 37:50 38:123 39:24 40:50 41:122 42:24 43:50 44:122 45:24 46:54 47:119 48:22 49:45 50:124 51:22 52:46 53:123 54:22 55:46 56:123 57:22 58:46 59:122 60:22 61:46 62:122 63:24 64:51 65:121 66:24 67:51 68:121 69:24 70:54 71:119 72:21 73:42 74:122 75:21 76:42 77:122 78:22 79:46 80:121 81:22 82:46 83:121 84:22 85:47 86:120 87:24 88:51 89:120 90:24 91:51 92:120 93:24 94:54 95:118 96:21 97:42 98:121 99:21 100:43 101:120 102:21 103:43 104:120 105:22 106:47 107:119 108:22 109:47 110:119 111:24 112:52 113:118 114:24 115:52 116:118 117:24 118:54 119:117 120:20 121:39 122:119 123:20 124:39 125:119 126:21 127:43 128:118 129:21 130:43 131:118 132:22 133:48 134:117 135:24 136:52 137:117 138:24 139:53 140:116 141:24 142:55 143:116 144:20 145:39 146:118 147:20 148:39 149:118 150:21 151:44 152:117 153:21 154:44 155:116 156:22 157:48 158:116 159:24 160:53 161:115 162:24 163:53 164:115 165:24 166:55 167:115 168:20 169:39 170:117 171:20 172:39 173:117 174:20 175:40 176:116 177:21 178:44 179:116 180:21 181:44 182:115 183:22 184:49 185:115 186:24 187:53 188:115 189:24 190:54 191:114 192:-1 
-0.611328125 0:27 1:54 2:109 3:27 4:54 5:109 6:28 7:63 8:110 9:28 10:63 11:110 12:30 13:66 14:109 15:33 16:70 17:113 18:35 19:68 20:113 21:34 22:62 23:111 24:27 25:54 26:108 27:27 28:53 29:110 30:28 31:62 32:111 33:28 34:61 35:112 36:30 37:64 38:111 39:33 40:66 41:112 42:35 43:68 44:112 45:34 46:63 47:110 48:27 49:54 50:108 51:27 52:53 53:110 54:28 55:61 56:113 57:28 58:60 59:115 60:30 61:62 62:115 63:33 64:66 65:112 66:35 67:68 68:112 69:34 70:63 71:110 72:29 73:52 74:108 75:29 76:51 77:111 78:30 79:58 80:114 81:30 82:57 83:116 84:30 85:61 86:117 87:33 88:60 89:114 90:34 91:61 92:113 93:35 94:57 95:111 96:29 97:51 98:111 99:29 100:49 101:114 102:30 103:57 104:116 105:30 106:56 107:118 108:33 109:62 110:120 111:34 112:58 113:118 114:34 115:59 116:116 117:35 118:56 119:114 120:33 121:49 122:114 123:33 124:48 125:116 126:33 127:58 128:119 129:33 130:57 131:121 132:33 133:61 134:122 135:34 136:57 137:121 138:35 139:53 140:120 141:35 142:50 143:118 144:35 145:50 146:117 147:33 148:48 149:118 150:34 151:57 152:121 153:33 154:56 155:122 156:34 157:56 158:122 159:35 160:52 161:123 162:35 163:48 164:122 165:35 166:49 167:120 168:37 169:45 170:129 171:35 172:46 173:127 174:36 175:57 176:126 177:34 178:56 179:122 180:34 181:57 182:120 183:35 184:52 185:122 186:35 187:47 188:125 189:34 190:43 191:125 192:-1 
-0.6103515625 0:46 1:255 2:48 3:46 4:255 5:48 6:46 7:255 8:48 9:44 10:255 11:47 12:44 13:255 14:47 15:44 16:255 17:46 18:44 19:255 20:46 21:46 22:255 23:54 24:44 25:255 26:54 27:44 28:255 29:54 30:44 31:255 32:53 33:44 34:255 35:52 36:43 37:255 38:52 39:44 40:255 41:51 42:45 43:255 44:51 45:47 46:255 47:56 48:44 49:255 50:63 51:43 52:255 53:62 54:43 55:255 56:61 57:44 58:255 59:60 60:43 61:255 62:59 63:43 64:255 65:59 66:44 67:255 68:58 69:46 70:255 71:58 72:44 73:240 74:68 75:42 76:251 77:66 78:42 79:255 80:66 81:42 82:255 83:65 84:44 85:255 86:65 87:43 88:255 89:63 90:44 91:255 92:64 93:46 94:255 95:60 96:44 97:199 98:82 99:43 100:219 101:77 102:43 103:241 104:71 105:43 106:255 107:69 108:44 109:255 110:68 111:43 112:255 113:68 114:44 115:255 116:70 117:44 118:255 119:72 120:44 121:183 122:85 123:44 124:201 125:81 126:44 127:222 128:77 129:44 130:234 131:74 132:44 133:238 134:74 135:44 136:238 137:73 138:44 139:241 140:75 141:44 142:252 143:75 144:44 145:165 146:91 147:45 148:174 149:88 150:45 151:189 152:85 153:45 154:200 155:83 156:46 157:205 158:82 159:45 160:205 161:81 162:44 163:211 164:81 165:44 166:236 167:80 168:45 169:152 170:97 171:46 172:157 173:96 174:47 175:163 176:94 177:47 178:171 179:91 180:47 181:175 182:89 183:47 184:177 185:88 186:46 187:189 188:89 189:44 190:219 191:86 192:-1 
-0.6103515625 0:60 1:255 2:21 3:60 4:255 5:20 6:60 7:255 8:10 9:60 10:255 11:9 12:60 13:255 14:9 15:60 16:255 17:9 18:60 19:255 20:8 21:60 22:255 23:8 24:58 25:255 26:29 27:56 28:255 29:29 30:57 31:246 32:27 33:57 34:255 35:21 36:60 37:255 38:16 39:60 40:255 41:11 42:60 43:255 44:7 45:60 46:255 47:6 48:55 49:234 50:36 51:55 52:227 53:37 54:56 55:255 56:29 57:58 58:255 59:25 60:60 61:255 62:17 63:60 64:255 65:12 66:60 67:255 68:8 69:60 70:255 71:7 72:55 73:213 74:43 75:56 76:193 77:45 78:56 79:231 80:32 81:56 82:255 83:29 84:60 85:255 86:22 87:60 88:255 89:17 90:60 91:255 92:10 93:60 94:255 95:8 96:56 97:214 98:44 99:56 100:210 101:45 102:56 103:220 104:36 105:56 106:231 107:32 108:57 109:255 110:26 111:60 112:255 113:21 114:60 115:255 116:14 117:60 118:255 119:11 120:56 121:249 122:41 123:56 124:236 125:40 126:56 127:203 128:39 129:56 130:214 131:37 132:56 133:231 134:32 135:58 136:255 137:27 138:60 139:255 140:21 141:60 142:255 143:17 144:56 145:255 146:40 147:56 148:242 149:39 150:56 151:202 152:43 153:56 154:198 155:40 156:56 157:205 158:36 159:56 160:224 161:33 162:57 163:246 164:27 165:60 166:255 167:23 168:55 169:228 170:47 171:55 172:216 173:46 174:56 175:197 176:44 177:56 178:184 179:43 180:56 181:193 182:41 183:56 184:208 185:38 186:56 187:218 188:34 189:56 190:239 191:31 192:-1 
-0.611328125 0:49 1:233 2:69 3:49 4:233 5:69 6:49 7:229 8:70 9:48 10:211 11:70 12:48 13:203 14:73 15:47 16:179 17:74 18:48 19:170 20:75 21:48 22:161 23:76 24:49 25:229 26:70 27:49 28:229 29:70 30:49 31:226 32:71 33:48 34:208 35:71 36:48 37:203 38:73 39:47 40:179 41:74 42:48 43:170 44:75 45:48 46:163 47:75 48:49 49:223 50:72 51:49 52:223 53:72 54:49 55:223 56:72 57:48 58:205 59:72 60:48 61:200 62:74 63:47 64:179 65:74 66:48 67:168 68:76 69:48 70:168 71:73 72:49 73:214 74:75 75:49 76:217 77:74 78:49 79:217 80:74 81:48 82:203 83:73 84:48 85:197 86:75 87:47 88:177 89:75 90:48 91:168 92:76 93:48 94:170 95:72 96:49 97:209 98:77 99:49 100:211 101:76 102:49 103:211 104:76 105:48 106:197 107:75 108:48 109:195 110:76 111:47 112:174 113:76 114:48 115:166 116:77 117:48 118:170 119:72 120:49 121:201 122:80 123:49 124:206 125:78 126:49 127:206 128:78 129:48 130:195 131:76 132:48 133:192 134:77 135:47 136:174 137:76 138:48 139:166 140:77 141:48 142:168 143:73 144:49 145:198 146:81 147:49 148:201 149:80 150:49 151:203 152:79 153:48 154:192 155:77 156:48 157:190 158:78 159:47 160:172 161:77 162:48 163:163 164:78 165:48 166:165 167:74 168:46 169:208 170:81 171:46 172:210 173:80 174:46 175:207 176:79 177:47 178:199 179:78 180:46 181:195 182:77 183:46 184:186 185:78 186:46 187:177 188:78 189:47 190:167 191:75 192:-1 
-0.611328125 0:110 1:10 2:80 3:50 4:10 5:74 6:40 7:31 8:73 9:39 10:45 11:80 12:38 13:57 14:89 15:37 16:62 17:94 18:36 19:74 20:96 21:33 22:77 23:96 24:115 25:16 26:94 27:75 28:6 29:79 30:42 31:17 32:74 33:38 34:34 35:82 36:38 37:42 38:92 39:37 40:59 41:95 42:37 43:62 44:95 45:34 46:70 47:98 48:111 49:22 50:114 51:103 52:19 53:94 54:83 55:12 56:82 57:51 58:20 59:89 60:43 61:37 62:96 63:41 64:56 65:96 66:40 67:62 68:94 69:35 70:66 71:96 72:83 73:8 74:121 75:55 76:15 77:102 78:51 79:20 80:90 81:48 82:35 83:96 84:46 85:43 86:101 87:43 88:56 89:95 90:42 91:69 92:92 93:37 94:71 95:93 96:40 97:49 98:119 99:43 100:54 101:113 102:42 103:60 104:106 105:45 106:63 107:105 108:45 109:61 110:108 111:44 112:64 113:111 114:44 115:64 116:111 117:41 118:70 119:110 120:39 121:75 122:119 123:40 124:75 125:115 126:43 127:75 128:112 129:43 130:74 131:113 132:45 133:68 134:117 135:45 136:65 137:121 138:45 139:65 140:121 141:43 142:65 143:118 144:39 145:76 146:118 147:40 148:78 149:117 150:42 151:76 152:117 153:42 154:73 155:122 156:44 157:66 158:128 159:44 160:64 161:132 162:44 163:65 164:130 165:43 166:61 167:125 168:39 169:76 170:118 171:40 172:77 173:119 174:42 175:76 176:121 177:42 178:70 179:128 180:43 181:68 182:136 183:43 184:67 185:137 186:43 187:69 188:133 189:43 190:66 191:127 192:-1 
-0.611328125 0:38 1:109 2:108 3:39 4:118 5:106 6:40 7:119 8:105 9:40 10:119 11:111 12:40 13:112 14:118 15:40 16:114 17:123 18:40 19:115 20:122 21:40 22:111 23:119 24:38 25:118 26:104 27:38 28:126 29:103 30:39 31:132 32:104 33:39 34:132 35:106 36:40 37:128 38:112 39:40 40:130 41:116 42:40 43:131 44:115 45:39 46:124 47:111 48:38 49:111 50:110 51:38 52:123 53:110 54:39 55:126 56:111 57:39 58:131 59:113 60:40 61:130 62:116 63:40 64:133 65:117 66:40 67:133 68:117 69:39 70:123 71:114 72:37 73:113 74:113 75:38 76:118 77:115 78:39 79:125 80:118 81:39 82:130 83:118 84:40 85:135 86:119 87:40 88:138 89:120 90:40 91:137 92:121 93:39 94:123 95:120 96:37 97:115 98:111 99:38 100:121 101:116 102:39 103:124 104:119 105:39 106:133 107:119 108:40 109:139 110:119 111:39 112:145 113:118 114:39 115:142 116:120 117:39 118:126 119:121 120:37 121:121 122:112 123:38 124:124 125:117 126:39 127:125 128:122 129:39 130:131 131:121 132:40 133:138 134:120 135:39 136:142 137:120 138:39 139:138 140:124 141:39 142:125 143:126 144:36 145:106 146:113 147:37 148:107 149:119 150:37 151:108 152:125 153:38 154:111 155:126 156:38 157:119 158:122 159:38 160:123 161:122 162:38 163:119 164:126 165:37 166:105 167:131 168:30 169:77 170:119 171:32 172:79 173:119 174:32 175:85 176:117 177:34 178:87 179:117 180:34 181:88 182:116 183:35 184:92 185:117 186:35 187:91 188:118 189:34 190:86 191:118 192:-1 
-0.611328125 0:15 1:38 2:121 3:14 4:40 5:122 6:14 7:43 8:112 9:11 10:51 11:106 12:11 13:51 14:105 15:10 16:54 17:103 18:10 19:57 20:98 21:10 22:52 23:107 24:13 25:31 26:133 27:11 28:30 29:146 30:11 31:31 32:138 33:9 34:39 35:125 36:9 37:41 38:117 39:8 40:44 41:115 42:8 43:46 44:112 45:5 46:51 47:110 48:11 49:25 50:144 51:8 52:24 53:162 54:8 55:24 56:159 57:5 58:29 59:148 60:5 61:32 62:136 63:0 64:32 65:127 66:5 67:39 68:119 69:3 70:43 71:118 72:5 73:19 74:161 75:5 76:19 77:177 78:5 79:19 80:179 81:2 82:22 83:173 84:2 85:24 86:162 87:178 88:28 89:145 90:0 91:32 92:129 93:0 94:34 95:135 96:5 97:17 98:181 99:5 100:17 101:195 102:5 103:17 104:195 105:0 106:19 107:190 108:0 109:20 110:179 111:178 112:26 113:160 114:178 115:29 116:143 117:177 118:38 119:134 120:3 121:15 122:189 123:0 124:15 125:205 126:0 127:15 128:200 129:174 130:20 131:187 132:174 133:22 134:173 135:174 136:25 137:161 138:178 139:27 140:152 141:177 142:42 143:121 144:3 145:15 146:188 147:177 148:12 149:206 150:175 151:16 152:197 153:170 154:18 155:172 156:170 157:24 158:158 159:170 160:25 161:152 162:169 163:28 164:153 165:174 166:34 167:119 168:6 169:15 170:170 171:170 172:13 173:179 174:164 175:16 176:171 177:158 178:17 179:161 180:157 181:21 182:157 183:157 184:23 185:146 186:159 187:25 188:133 189:164 190:27 191:122 192:-1 
-0.611328125 0:5 1:53 2:144 3:4 4:55 5:135 6:3 7:62 8:127 9:3 10:63 11:125 12:1 13:56 14:131 15:0 16:45 17:135 18:166 19:32 20:135 21:159 22:23 23:144 24:4 25:56 26:133 27:1 28:59 29:126 30:0 31:65 32:118 33:0 34:65 35:118 36:178 37:61 38:126 39:177 40:51 41:131 42:169 43:31 44:142 45:164 46:21 47:155 48:1 49:64 50:115 51:1 52:71 53:104 54:178 55:77 56:100 57:178 58:75 59:102 60:178 61:70 62:110 63:177 64:59 65:113 66:169 67:33 68:131 69:170 70:21 71:144 72:1 73:77 74:96 75:178 76:84 77:88 78:175 79:88 80:90 81:175 82:80 83:99 84:175 85:75 86:109 87:174 88:62 89:111 90:174 91:35 92:116 93:175 94:24 95:125 96:1 97:82 98:84 99:1 100:86 101:80 102:178 103:81 104:91 105:178 106:70 107:106 108:178 109:64 110:120 111:177 112:54 113:123 114:174 115:35 116:115 117:169 118:24 119:118 120:8 121:91 122:76 123:6 124:88 125:84 126:5 127:74 128:104 129:5 130:68 131:113 132:5 133:68 134:112 135:4 136:56 137:109 138:175 139:37 140:83 141:170 142:29 143:78 144:9 145:87 146:85 147:9 148:88 149:84 150:8 151:81 152:97 153:8 154:76 155:104 156:10 157:86 158:98 159:8 160:78 161:85 162:177 163:35 164:72 165:160 166:23 167:67 168:9 169:76 170:97 171:9 172:75 173:99 174:8 175:68 176:116 177:8 178:61 179:130 180:10 181:72 182:117 183:8 184:76 185:87 186:177 187:46 188:56 189:156 190:23 191:56 192:-1 
-0.611328125 0:6 1:8 2:158 3:173 4:6 5:165 6:140 7:5 8:169 9:132 10:6 11:198 12:132 13:7 14:193 15:160 16:9 17:167 18:170 19:15 20:150 21:177 22:18 23:143 24:6 25:8 26:156 27:173 28:6 29:167 30:140 31:4 32:176 33:132 34:6 35:199 36:132 37:7 38:174 39:160 40:11 41:141 42:163 43:17 44:135 45:169 46:19 47:145 48:13 49:11 50:162 51:173 52:6 53:161 54:140 55:5 56:161 57:132 58:7 59:180 60:132 61:8 62:158 63:150 64:13 65:134 66:163 67:19 68:119 69:169 70:25 71:112 72:13 73:9 74:189 75:173 76:6 77:183 78:140 79:4 80:180 81:132 82:7 83:178 84:132 85:7 86:172 87:150 88:11 89:157 90:163 91:21 92:111 93:164 94:45 95:63 96:13 97:9 98:192 99:173 100:5 101:198 102:140 103:4 104:208 105:132 106:7 107:192 108:132 109:7 110:183 111:150 112:11 113:163 114:163 115:23 116:102 117:164 118:67 119:42 120:0 121:9 122:162 123:160 124:8 125:182 126:145 127:7 128:208 129:145 130:8 131:203 132:150 133:10 134:176 135:150 136:12 137:145 138:156 139:28 140:91 141:164 142:57 143:49 144:158 145:17 146:168 147:158 148:19 149:144 150:158 151:20 152:141 153:158 154:16 155:174 156:158 157:15 158:183 159:158 160:22 161:125 162:158 163:33 164:84 165:159 166:57 167:58 168:159 169:17 170:195 171:157 172:21 173:161 174:159 175:25 176:133 177:159 178:24 179:139 180:164 181:18 182:183 183:164 184:20 185:165 186:164 187:29 188:115 189:164 190:79 191:42 192:-1 
-0.611328125 0:14 1:34 2:142 3:14 4:37 5:130 6:15 7:46 8:110 9:15 10:51 11:120 12:15 13:67 14:91 15:12 16:57 17:98 18:9 19:38 20:129 21:2 22:28 23:136 24:14 25:31 26:154 27:14 28:33 29:146 30:15 31:39 32:132 33:15 34:50 35:122 36:13 37:56 38:113 39:12 40:54 41:109 42:8 43:52 44:99 45:0 46:44 47:92 48:15 49:38 50:134 51:17 52:36 53:134 54:15 55:40 56:128 57:10 58:50 59:113 60:10 61:45 62:125 63:8 64:45 65:113 66:5 67:74 68:62 69:0 70:97 71:42 72:19 73:67 74:80 75:21 76:48 77:106 78:15 79:36 80:129 81:0 82:35 83:116 84:174 85:36 86:136 87:178 88:34 89:121 90:0 91:53 92:77 93:5 94:79 95:58 96:21 97:67 98:87 99:22 100:52 101:107 102:18 103:36 104:122 105:174 106:27 107:141 108:166 109:31 110:140 111:169 112:36 113:119 114:178 115:47 116:87 117:8 118:66 119:77 120:21 121:52 122:99 123:25 124:42 125:108 126:18 127:38 128:115 129:174 130:27 131:141 132:166 133:31 134:140 135:169 136:33 137:132 138:0 139:31 140:117 141:9 142:46 143:105 144:21 145:46 146:111 147:26 148:39 149:111 150:21 151:30 152:110 153:170 154:26 155:119 156:166 157:29 158:132 159:170 160:26 161:147 162:0 163:24 164:147 165:9 166:40 167:120 168:23 169:37 170:110 171:26 172:35 173:109 174:16 175:27 176:104 177:169 178:26 179:108 180:164 181:29 182:114 183:170 184:23 185:132 186:0 187:21 188:146 189:11 190:34 191:129 192:-1 
-0.6103515625 0:4 1:41 2:148 3:5 4:43 5:131 6:8 7:48 8:107 9:14 10:46 11:105 12:14 13:39 14:124 15:13 16:29 17:139 18:8 19:21 20:136 21:6 22:21 23:124 24:177 25:49 26:115 27:0 28:44 29:104 30:5 31:48 32:96 33:8 34:38 35:102 36:8 37:33 38:117 39:5 40:25 41:124 42:177 43:17 44:133 45:177 46:18 47:127 48:172 49:85 50:69 51:174 52:70 53:69 54:174 55:52 56:78 57:175 58:34 59:91 60:175 61:31 62:100 63:177 64:26 65:99 66:163 67:19 68:122 69:170 70:19 71:122 72:167 73:143 74:41 75:167 76:100 77:51 78:166 79:66 80:66 81:159 82:43 83:77 84:159 85:41 86:81 87:158 88:36 89:78 90:153 91:23 92:111 93:156 94:23 95:111 96:163 97:133 98:46 99:162 100:81 101:63 102:157 103:62 104:74 105:148 106:49 107:78 108:148 109:47 110:81 111:146 112:43 113:83 114:144 115:30 116:119 117:153 118:23 119:110 120:160 121:97 122:63 123:156 124:64 125:84 126:150 127:52 128:94 129:144 130:50 131:97 132:141 133:51 134:104 135:142 136:42 137:109 138:141 139:31 140:132 141:147 142:23 143:120 144:157 145:95 146:67 147:151 148:62 149:90 150:146 151:51 152:109 153:140 154:50 155:118 156:138 157:52 158:128 159:138 160:43 161:136 162:139 163:33 164:131 165:147 166:22 167:128 168:164 169:91 170:56 171:160 172:57 173:81 174:159 175:38 176:106 177:152 178:30 179:118 180:146 181:28 182:129 183:153 184:19 185:136 186:170 187:20 188:115 189:13 190:19 191:124 192:-1 
-0.6103515625 0:42 1:255 2:51 3:41 4:161 5:84 6:40 7:201 8:66 9:38 10:183 11:67 12:35 13:117 14:96 15:28 16:81 17:119 18:24 19:77 20:119 21:20 22:81 23:113 24:41 25:188 26:72 27:41 28:159 29:90 30:40 31:192 32:73 33:37 34:180 35:71 36:35 37:116 38:97 39:28 40:82 41:118 42:24 43:74 44:124 45:18 46:73 47:132 48:43 49:146 50:94 51:42 52:149 53:96 54:41 55:172 56:83 57:38 58:159 59:82 60:35 61:111 62:101 63:28 64:84 65:115 66:23 67:80 68:121 69:18 70:74 71:135 72:40 73:123 74:89 75:41 76:121 77:95 78:39 79:134 80:84 81:36 82:123 83:85 84:33 85:93 86:101 87:26 88:76 89:110 90:22 91:72 92:110 93:18 94:66 95:123 96:28 97:71 98:97 99:30 100:85 101:72 102:30 103:73 104:84 105:29 106:58 107:97 108:26 109:56 110:101 111:26 112:53 113:96 114:21 115:52 116:98 117:17 118:45 119:107 120:22 121:100 122:64 123:21 124:80 125:73 126:21 127:60 128:85 129:20 130:48 131:96 132:20 133:51 134:90 135:22 136:51 137:75 138:21 139:45 140:73 141:21 142:38 143:88 144:22 145:142 146:45 147:21 148:90 149:65 150:21 151:65 152:78 153:20 154:52 155:88 156:23 157:52 158:78 159:22 160:61 161:63 162:22 163:60 164:64 165:26 166:42 167:86 168:24 169:96 170:64 171:22 172:95 173:59 174:26 175:75 176:68 177:25 178:60 179:77 180:23 181:54 182:76 183:23 184:57 185:71 186:26 187:51 188:75 189:26 190:38 191:93 192:-1 
-0.611328125 0:58 1:60 2:77 3:66 4:107 5:38 6:69 7:185 8:22 9:69 10:177 11:23 12:58 13:174 14:22 15:53 16:228 17:19 18:46 19:255 20:17 21:43 22:255 23:18 24:54 25:76 26:64 27:62 28:173 29:25 30:60 31:255 32:6 33:60 34:255 35:13 36:53 37:255 38:17 39:53 40:255 41:16 42:45 43:255 44:16 45:39 46:255 47:20 48:51 49:94 50:57 51:54 52:211 53:23 54:55 55:255 56:17 57:54 58:179 59:27 60:50 61:182 62:28 63:46 64:244 65:23 66:41 67:255 68:22 69:37 70:255 71:27 72:48 73:107 74:55 75:50 76:217 77:27 78:51 79:179 80:30 81:48 82:159 83:37 84:46 85:160 86:35 87:42 88:255 89:25 90:39 91:255 92:21 93:36 94:255 95:26 96:46 97:84 98:79 99:47 100:155 101:41 102:50 103:255 104:21 105:46 106:237 107:28 108:45 109:174 110:38 111:41 112:170 113:45 114:37 115:172 116:46 117:35 118:204 119:40 120:44 121:71 122:101 123:46 124:94 125:79 126:44 127:155 128:46 129:44 130:149 131:48 132:41 133:150 134:51 135:39 136:152 137:52 138:35 139:167 140:49 141:34 142:191 143:44 144:41 145:64 146:107 147:43 148:77 149:100 150:40 151:102 152:80 153:40 154:105 155:78 156:39 157:117 158:74 159:36 160:129 161:67 162:34 163:140 164:60 165:31 166:164 167:53 168:39 169:73 170:102 171:40 172:82 173:99 174:40 175:88 176:99 177:39 178:93 179:96 180:36 181:97 182:89 183:35 184:113 185:81 186:33 187:126 188:71 189:32 190:147 191:64 192:-1 
-0.611328125 0:17 1:219 2:35 3:17 4:239 5:32 6:21 7:178 8:33 9:18 10:255 11:15 12:22 13:234 14:24 15:24 16:146 17:42 18:22 19:130 20:49 21:22 22:102 23:65 24:17 25:195 26:38 27:17 28:211 29:35 30:22 31:188 32:34 33:24 34:227 35:27 36:24 37:170 38:36 39:22 40:151 41:44 42:22 43:138 44:48 45:22 46:90 47:74 48:14 49:172 50:40 51:17 52:200 53:37 54:20 55:195 56:34 57:22 58:179 59:37 60:22 61:162 62:41 63:22 64:247 65:30 66:22 67:239 68:31 69:22 70:103 71:72 72:14 73:168 74:41 75:17 76:195 77:38 78:21 79:209 80:33 81:22 82:176 83:42 84:22 85:180 86:41 87:14 88:255 89:15 90:12 91:255 92:13 93:22 94:112 95:66 96:13 97:163 98:39 99:16 100:255 101:28 102:16 103:255 104:23 105:20 106:227 107:37 108:20 109:216 110:39 111:17 112:255 113:26 114:18 115:255 116:27 117:20 118:162 119:52 120:13 121:89 122:72 123:13 124:104 125:71 126:19 127:170 128:51 129:21 130:135 131:66 132:21 133:127 134:70 135:20 136:150 137:56 138:20 139:168 140:50 141:20 142:126 143:67 144:12 145:48 146:121 147:13 148:56 149:131 150:17 151:106 152:87 153:21 154:99 155:98 156:21 157:95 158:102 159:20 160:102 161:90 162:20 163:115 164:80 165:21 166:100 167:89 168:12 169:43 170:135 171:13 172:51 173:146 174:18 175:86 176:113 177:20 178:91 179:115 180:20 181:93 182:113 183:21 184:91 185:107 186:21 187:92 188:105 189:20 190:83 191:111 192:-1 
